<?xml version="1.0"?>
<opencv_storage>
<cascade>
  <stageType>BOOST</stageType>
  <featureType>LBP</featureType>
  <height>40</height>
  <width>40</width>
  <stageParams>
    <boostType>GAB</boostType>
    <minHitRate>9.9500000476837158e-01</minHitRate>
    <maxFalseAlarm>5.0000000000000000e-01</maxFalseAlarm>
    <weightTrimRate>9.4999999999999996e-01</weightTrimRate>
    <maxDepth>1</maxDepth>
    <maxWeakCount>100</maxWeakCount></stageParams>
  <featureParams>
    <maxCatCount>256</maxCatCount>
    <featSize>1</featSize></featureParams>
  <stageNum>20</stageNum>
  <stages>
    <!-- stage 0 -->
    <_>
      <maxWeakCount>8</maxWeakCount>
      <stageThreshold>-1.4348427057266235e+00</stageThreshold>
      <weakClassifiers>
        <_>
          <internalNodes>
            0 -1 18 -486539265 -223152478 1297211858 -705561838
            1354791408 -417270875 -983435839 -143132685</internalNodes>
          <leafValues>
            -5.4847037792205811e-01 5.1787918806076050e-01</leafValues></_>
        <_>
          <internalNodes>
            0 -1 64 303184281 976789655 1996734431 1073724127 1509759487
            1056905978 -312385 788475582</internalNodes>
          <leafValues>
            -6.5009480714797974e-01 3.7967902421951294e-01</leafValues></_>
        <_>
          <internalNodes>
            0 -1 170 -464261036 1885400672 -1072665536 1079047390
            -870320906 -457118763 -1063916338 -1058013185</internalNodes>
          <leafValues>
            -5.1470923423767090e-01 4.5589983463287354e-01</leafValues></_>
        <_>
          <internalNodes>
            0 -1 41 -2130089 -205791177 -137227318 -227478538
            -1222543760 -178167453 -80267401 -143163529</internalNodes>
          <leafValues>
            -4.3001437187194824e-01 4.2433455586433411e-01</leafValues></_>
        <_>
          <internalNodes>
            0 -1 97 -84611082 -85418018 1811771335 -1109644310 -84672544
            -109182978 -671908569 -1079132177</internalNodes>
          <leafValues>
            -3.7815973162651062e-01 4.7564771771430969e-01</leafValues></_>
        <_>
          <internalNodes>
            0 -1 188 -227023769 809298013 -1669021167 547380301
            -761315066 469938658 458756 -2130712261</internalNodes>
          <leafValues>
            -4.4047746062278748e-01 3.8834056258201599e-01</leafValues></_>
        <_>
          <internalNodes>
            0 -1 109 106955765 -169995308 1066506751 -1084440134
            133790137 -1281685413 -8175682 -1200347648</internalNodes>
          <leafValues>
            -4.1555929183959961e-01 3.9601850509643555e-01</leafValues></_>
        <_>
          <internalNodes>
            0 -1 11 -1060714206 -1494092041 -1065388560 278054960
            1170320050 -973542427 -448205333 1433487079</internalNodes>
          <leafValues>
            -5.2082008123397827e-01 2.7671584486961365e-01</leafValues></_></weakClassifiers></_>
    <!-- stage 1 -->
    <_>
      <maxWeakCount>9</maxWeakCount>
      <stageThreshold>-1.1326482295989990e+00</stageThreshold>
      <weakClassifiers>
        <_>
          <internalNodes>
            0 -1 199 -285214721 -1526796609 -1090521345 -1398608137
            -822354497 -1090531363 -1375801345 -385876033</internalNodes>
          <leafValues>
            -3.3939543366432190e-01 7.1517348289489746e-01</leafValues></_>
        <_>
          <internalNodes>
            0 -1 15 -37814273 -570754049 -9093327 1589540851 1442381277
            128980411 -143165569 1937209271</internalNodes>
          <leafValues>
            -4.2402726411819458e-01 4.7418814897537231e-01</leafValues></_>
        <_>
          <internalNodes>
            0 -1 149 487077852 526058461 1027690975 526070175
            -1114080257 -4288342 -1551651841 -1949028712</internalNodes>
          <leafValues>
            -4.6158114075660706e-01 4.2484945058822632e-01</leafValues></_>
        <_>
          <internalNodes>
            0 -1 186 -1059602345 1648422918 -1072639294 -535771674
            -1470201856 -127020276 -524097022 -521406785</internalNodes>
          <leafValues>
            -4.2167583107948303e-01 4.5548126101493835e-01</leafValues></_>
        <_>
          <internalNodes>
            0 -1 47 -69249673 -109052097 -1048641 -79691973 -7004301
            -1241645193 -1614841996 -8913033</internalNodes>
          <leafValues>
            -3.2400336861610413e-01 5.2371060848236084e-01</leafValues></_>
        <_>
          <internalNodes>
            0 -1 86 991182591 -136412753 402921943 -4041805 -486518128
            -1277624091 -351663691 -1433141248</internalNodes>
          <leafValues>
            -4.7594317793846130e-01 4.0568959712982178e-01</leafValues></_>
        <_>
          <internalNodes>
            0 -1 165 -455117312 2085773840 404902100 239841871
            -133701557 -1206246966 -1192711026 -260046881</internalNodes>
          <leafValues>
            -4.8287430405616760e-01 3.6135154962539673e-01</leafValues></_>
        <_>
          <internalNodes>
            0 -1 70 650540593 2146893559 -245889 872095994 1601315357
            -1611825411 -4309765 -1076944514</internalNodes>
          <leafValues>
            -4.0674301981925964e-01 4.6190756559371948e-01</leafValues></_>
        <_>
          <internalNodes>
            0 -1 33 -603995209 -396120337 -285753549 548548135
            1173653351 -1516929053 -403448763 -249045977</internalNodes>
          <leafValues>
            -3.7690892815589905e-01 4.7424852848052979e-01</leafValues></_></weakClassifiers></_>
    <!-- stage 2 -->
    <_>
      <maxWeakCount>10</maxWeakCount>
      <stageThreshold>-1.3391766548156738e+00</stageThreshold>
      <weakClassifiers>
        <_>
          <internalNodes>
            0 -1 196 -285212929 -1460862977 -352321538 -1900872193
            -855648843 -1929969665 -843063811 -318767105</internalNodes>
          <leafValues>
            -3.7301588058471680e-01 6.3513511419296265e-01</leafValues></_>
        <_>
          <internalNodes>
            0 -1 77 571288080 466332470 530390479 -1080579466 1776107517
            -7664917 1005535199 788465838</internalNodes>
          <leafValues>
            -5.7717788219451904e-01 3.6595207452774048e-01</leafValues></_>
        <_>
          <internalNodes>
            0 -1 35 -289407434 -1907453693 -1056549310 -1002278122
            -932753119 -1725759456 -512527083 -524813769</internalNodes>
          <leafValues>
            -4.2946365475654602e-01 4.3397516012191772e-01</leafValues></_>
        <_>
          <internalNodes>
            0 -1 14 -356319262 1217450779 -1858021104 2023682433
            -992936060 12602016 -254683669 -241830555</internalNodes>
          <leafValues>
            -5.5373853445053101e-01 3.2949572801589966e-01</leafValues></_>
        <_>
          <internalNodes>
            0 -1 156 -8390668 -725312524 1916858516 -1593453876
            2103834101 -2121676535 -173173315 83230411</internalNodes>
          <leafValues>
            -5.3453582525253296e-01 3.2628849148750305e-01</leafValues></_>
        <_>
          <internalNodes>
            0 -1 4 -966735198 -772744254 -532622081 -204436445
            -968690695 336249443 1947831275 1979168755</internalNodes>
          <leafValues>
            -4.9366059899330139e-01 3.4935632348060608e-01</leafValues></_>
        <_>
          <internalNodes>
            0 -1 130 609235449 836542027 -582957665 -1613693473
            1535736570 -1075243125 1047004091 -1147135448</internalNodes>
          <leafValues>
            -4.2129874229431152e-01 4.2933610081672668e-01</leafValues></_>
        <_>
          <internalNodes>
            0 -1 183 -2062549513 752194869 -1839525539 -1461927435
            -1148067457 696957583 1677441781 -991970633</internalNodes>
          <leafValues>
            -4.4462507963180542e-01 3.6545413732528687e-01</leafValues></_>
        <_>
          <internalNodes>
            0 -1 122 -2007747595 -699074505 -654216801 -1076061987
            840564733 -1184132886 1628265453 743705892</internalNodes>
          <leafValues>
            -5.3709822893142700e-01 3.1686973571777344e-01</leafValues></_>
        <_>
          <internalNodes>
            0 -1 22 -1562183205 -1792491872 619843441 -696537290
            779149012 -1199964174 1297479489 -9181261</internalNodes>
          <leafValues>
            -3.7353697419166565e-01 4.4521865248680115e-01</leafValues></_></weakClassifiers></_>
    <!-- stage 3 -->
    <_>
      <maxWeakCount>10</maxWeakCount>
      <stageThreshold>-1.0808045864105225e+00</stageThreshold>
      <weakClassifiers>
        <_>
          <internalNodes>
            0 -1 190 -2098465 -1999963933 1075921922 686469263
            -1778320761 -2146201457 46909643 7862781</internalNodes>
          <leafValues>
            -4.6038252115249634e-01 4.3880209326744080e-01</leafValues></_>
        <_>
          <internalNodes>
            0 -1 43 -33025 -8405697 -9011333 -143474829 -143168927
            -143296649 -1074039981 -143130765</internalNodes>
          <leafValues>
            -3.8062769174575806e-01 4.5924708247184753e-01</leafValues></_>
        <_>
          <internalNodes>
            0 -1 63 -52428802 2113167102 -1996105692 709405406 -1574924
            876081804 -1220052324 819279848</internalNodes>
          <leafValues>
            -6.2951934337615967e-01 2.5844439864158630e-01</leafValues></_>
        <_>
          <internalNodes>
            0 -1 78 544682815 -536920129 -273778897 -1754124766
            2070707577 -34177153 1534688383 -1073775846</internalNodes>
          <leafValues>
            -3.3517000079154968e-01 4.6637520194053650e-01</leafValues></_>
        <_>
          <internalNodes>
            0 -1 19 -288871489 -1702198174 -1069498087 826890784
            889475824 169894295 -1608405260 2004186999</internalNodes>
          <leafValues>
            -5.4299396276473999e-01 2.7411276102066040e-01</leafValues></_>
        <_>
          <internalNodes>
            0 -1 96 -297489664 -683740750 -1023253365 -154693035
            1264090042 -2054450557 -670454550 -17875286</internalNodes>
          <leafValues>
            -4.1895106434822083e-01 3.6868429183959961e-01</leafValues></_>
        <_>
          <internalNodes>
            0 -1 128 2151413 -63193091 -272826369 -169300041 -419843
            -1090519041 -1410290247 -1372838624</internalNodes>
          <leafValues>
            -3.5165721178054810e-01 4.4160419702529907e-01</leafValues></_>
        <_>
          <internalNodes>
            0 -1 177 -62393838 -429602741 302125056 13157382 -1966981044
            -1782791283 -1306834821 -387187505</internalNodes>
          <leafValues>
            -4.4825842976570129e-01 3.5931953787803650e-01</leafValues></_>
        <_>
          <internalNodes>
            0 -1 24 1086557158 -242232505 -191822579 -280304801
            415240853 90618072 -92159525 1859584763</internalNodes>
          <leafValues>
            -3.8275811076164246e-01 3.8853272795677185e-01</leafValues></_>
        <_>
          <internalNodes>
            0 -1 93 221810673 -1127186571 2147401533 -1174487190
            502728439 -8552577 -618197185 -285981418</internalNodes>
          <leafValues>
            -3.5926344990730286e-01 4.0871402621269226e-01</leafValues></_></weakClassifiers></_>
    <!-- stage 4 -->
    <_>
      <maxWeakCount>11</maxWeakCount>
      <stageThreshold>-1.4705739021301270e+00</stageThreshold>
      <weakClassifiers>
        <_>
          <internalNodes>
            0 -1 198 -939524641 -1593847815 1071611899 -1367719941
            -839122969 -570425345 -167774219 -591398985</internalNodes>
          <leafValues>
            -3.7715646624565125e-01 4.8066717386245728e-01</leafValues></_>
        <_>
          <internalNodes>
            0 -1 34 2136865661 -104434818 1749096727 -539491363
            905083391 -789561316 -14550213 1442149687</internalNodes>
          <leafValues>
            -4.5573908090591431e-01 3.4432405233383179e-01</leafValues></_>
        <_>
          <internalNodes>
            0 -1 147 705704789 362295801 831798751 530383324 -592581899
            -1129584193 -280516296 -1929641952</internalNodes>
          <leafValues>
            -4.3981513381004333e-01 3.6114707589149475e-01</leafValues></_>
        <_>
          <internalNodes>
            0 -1 153 -261117438 2000777586 4199514 -263900197 -528223685
            859959593 570720306 1884418715</internalNodes>
          <leafValues>
            -4.0852022171020508e-01 3.7281829118728638e-01</leafValues></_>
        <_>
          <internalNodes>
            0 -1 23 -1026821177 -1897730134 1735733219 -738998358
            1245135876 -1625362459 557274144 -77072553</internalNodes>
          <leafValues>
            -3.6342373490333557e-01 4.0119704604148865e-01</leafValues></_>
        <_>
          <internalNodes>
            0 -1 94 643047943 -1614760570 -711855137 -1717806527
            1942707069 -1156035713 -93377889 1004346093</internalNodes>
          <leafValues>
            -5.0435340404510498e-01 2.8676947951316833e-01</leafValues></_>
        <_>
          <internalNodes>
            0 -1 101 -1606384672 -1242535625 -969371300 -49500117
            -825105987 766740490 -402375763 -324212154</internalNodes>
          <leafValues>
            -4.2509734630584717e-01 3.4148541092872620e-01</leafValues></_>
        <_>
          <internalNodes>
            0 -1 189 -293606613 -255147429 77713439 1074941977
            1897349921 -1063115840 43342116 -2131760937</internalNodes>
          <leafValues>
            -4.3750330805778503e-01 3.3210057020187378e-01</leafValues></_>
        <_>
          <internalNodes>
            0 -1 160 387470173 1034027321 939824379 463063997 -662094855
            -1141239105 -655553795 -1471401928</internalNodes>
          <leafValues>
            -4.8303970694541931e-01 3.2377120852470398e-01</leafValues></_>
        <_>
          <internalNodes>
            0 -1 89 -469773070 -928828888 1039023841 -671877275
            -431054938 -2016419970 -2063731232 -991997470</internalNodes>
          <leafValues>
            -3.1605255603790283e-01 4.6567299962043762e-01</leafValues></_>
        <_>
          <internalNodes>
            0 -1 39 -606339227 -1173745337 1073807675 -1265073357
            -2084232960 1394737160 454498817 -422095081</internalNodes>
          <leafValues>
            -4.2445263266563416e-01 3.4518486261367798e-01</leafValues></_></weakClassifiers></_>
    <!-- stage 5 -->
    <_>
      <maxWeakCount>12</maxWeakCount>
      <stageThreshold>-1.2508946657180786e+00</stageThreshold>
      <weakClassifiers>
        <_>
          <internalNodes>
            0 -1 121 -18370561 -8409153 -1090703553 -1073767541
            -1075401029 -235553545 -542143125 -1683028982</internalNodes>
          <leafValues>
            -3.3500137925148010e-01 5.0145649909973145e-01</leafValues></_>
        <_>
          <internalNodes>
            0 -1 40 -169881097 -663299805 1619450202 1427173506
            1350780097 -922287744 -742984656 1999860595</internalNodes>
          <leafValues>
            -4.5802253484725952e-01 3.3777603507041931e-01</leafValues></_>
        <_>
          <internalNodes>
            0 -1 178 -497036817 -2137595837 -805253094 -1464174822
            -218897635 -2138532974 969539788 943187455</internalNodes>
          <leafValues>
            -4.0032690763473511e-01 3.6088791489601135e-01</leafValues></_>
        <_>
          <internalNodes>
            0 -1 136 423679320 930661573 -1190963745 -1109546753
            -203576323 -1146376049 -1312490243 1050155300</internalNodes>
          <leafValues>
            -5.7113057374954224e-01 2.5067144632339478e-01</leafValues></_>
        <_>
          <internalNodes>
            0 -1 139 -237064188 -246406374 1157672668 -180725773
            -804539460 878010598 570434236 544996463</internalNodes>
          <leafValues>
            -4.8167279362678528e-01 2.8873714804649353e-01</leafValues></_>
        <_>
          <internalNodes>
            0 -1 36 -253265897 543408653 1103335715 -1106197877
            -528349627 1207992353 1394109201 -88640653</internalNodes>
          <leafValues>
            -4.4175121188163757e-01 3.1074067950248718e-01</leafValues></_>
        <_>
          <internalNodes>
            0 -1 5 1218634242 -678999846 -2146381503 1268061238
            -1853816943 1837616028 1368770955 1173747186</internalNodes>
          <leafValues>
            -4.3476074934005737e-01 3.1430515646934509e-01</leafValues></_>
        <_>
          <internalNodes>
            0 -1 161 357512053 981176791 1124700639 357255127
            -1692157447 -369557352 986616829 -1687746551</internalNodes>
          <leafValues>
            -3.7636336684226990e-01 3.6476328969001770e-01</leafValues></_>
        <_>
          <internalNodes>
            0 -1 141 -1656974476 -213118641 -750434153 -1617424237
            -108500495 -1180171559 -171609108 -1428420516</internalNodes>
          <leafValues>
            -3.9652374386787415e-01 3.5152897238731384e-01</leafValues></_>
        <_>
          <internalNodes>
            0 -1 180 -208143574 617517557 1442841986 1612149174
            -1696910400 293628637 1883809825 284155687</internalNodes>
          <leafValues>
            -4.7401168942451477e-01 3.0741235613822937e-01</leafValues></_>
        <_>
          <internalNodes>
            0 -1 68 567028437 1491341686 -784248899 -1085516853
            286931444 -1204090728 746670382 -1931451609</internalNodes>
          <leafValues>
            -3.7511581182479858e-01 3.8019827008247375e-01</leafValues></_>
        <_>
          <internalNodes>
            0 -1 168 -667325946 1398013191 1073979498 293507475
            -536387546 -1878474490 -1064719921 -161221681</internalNodes>
          <leafValues>
            -3.5085862874984741e-01 4.1774827241897583e-01</leafValues></_></weakClassifiers></_>
    <!-- stage 6 -->
    <_>
      <maxWeakCount>13</maxWeakCount>
      <stageThreshold>-9.9944806098937988e-01</stageThreshold>
      <weakClassifiers>
        <_>
          <internalNodes>
            0 -1 172 -1354761345 1012147807 -1878080002 684778030
            -1953506865 948486397 -917512707 1178969</internalNodes>
          <leafValues>
            -5.6513220071792603e-01 2.9156139492988586e-01</leafValues></_>
        <_>
          <internalNodes>
            0 -1 10 -862979425 2029501115 -1997260880 -252450893
            -576126985 552878077 -573442565 -789056013</internalNodes>
          <leafValues>
            -3.2317087054252625e-01 4.9197551608085632e-01</leafValues></_>
        <_>
          <internalNodes>
            0 -1 53 -67152263 1604313045 -1090627732 -52633611 -17420715
            -168451 -1112245195 -69732393</internalNodes>
          <leafValues>
            -3.5862851142883301e-01 3.9937660098075867e-01</leafValues></_>
        <_>
          <internalNodes>
            0 -1 117 12646268 -199172908 352619007 488541012 690252208
            -1077870436 732049340 -1400371936</internalNodes>
          <leafValues>
            -3.9656981825828552e-01 3.6332011222839355e-01</leafValues></_>
        <_>
          <internalNodes>
            0 -1 184 -664846269 -64336777 -822670280 1248478838
            -925220789 83291775 -390554574 -132192149</internalNodes>
          <leafValues>
            -3.2153469324111938e-01 4.1753184795379639e-01</leafValues></_>
        <_>
          <internalNodes>
            0 -1 46 273178184 -473369381 -784288993 -543890597
            1911056756 -541044094 1912609706 1039938530</internalNodes>
          <leafValues>
            -5.8106821775436401e-01 2.2400294244289398e-01</leafValues></_>
        <_>
          <internalNodes>
            0 -1 61 -1965116518 -1177853623 -1610473441 1175136936
            -1042738227 -842672237 -645010721 205866102</internalNodes>
          <leafValues>
            -5.0300598144531250e-01 2.7638703584671021e-01</leafValues></_>
        <_>
          <internalNodes>
            0 -1 1 678438018 352502423 -985658915 1695050719 -951054053
            795937019 -1693298227 -10657161</internalNodes>
          <leafValues>
            -4.4663703441619873e-01 2.8662860393524170e-01</leafValues></_>
        <_>
          <internalNodes>
            0 -1 26 -471338049 266530330 2147090227 -809283665
            1157211349 -2129936 1718744819 -73931021</internalNodes>
          <leafValues>
            -2.2728198766708374e-01 6.0202783346176147e-01</leafValues></_>
        <_>
          <internalNodes>
            0 -1 16 -488702992 -712135592 -1056233999 -1328255009
            -253695128 -1183823352 -225379791 1825133525</internalNodes>
          <leafValues>
            -5.1372426748275757e-01 2.8933128714561462e-01</leafValues></_>
        <_>
          <internalNodes>
            0 -1 197 -1464691981 -2105507118 -1845439552 747149765
            -1047834437 -1337311102 -1593583113 -1377829907</internalNodes>
          <leafValues>
            -4.2383733391761780e-01 2.9553917050361633e-01</leafValues></_>
        <_>
          <internalNodes>
            0 -1 154 -266457696 403727187 -2139058722 -1888960273
            202846654 -1688864238 940049070 960622782</internalNodes>
          <leafValues>
            -4.5386400818824768e-01 3.0462402105331421e-01</leafValues></_>
        <_>
          <internalNodes>
            0 -1 111 -1465346364 -148989633 -717189586 799939278
            506137520 -8289399 -586676034 -1093784958</internalNodes>
          <leafValues>
            -4.6281182765960693e-01 3.1361165642738342e-01</leafValues></_></weakClassifiers></_>
    <!-- stage 7 -->
    <_>
      <maxWeakCount>7</maxWeakCount>
      <stageThreshold>-1.0961061716079712e+00</stageThreshold>
      <weakClassifiers>
        <_>
          <internalNodes>
            0 -1 6 -1056843609 1949330338 1273702115 -881613248
            -1787758621 1169395696 29425671 -1012432222</internalNodes>
          <leafValues>
            -4.2760241031646729e-01 7.5634515285491943e-01</leafValues></_>
        <_>
          <internalNodes>
            0 -1 132 188494100 281328810 720912308 758279029 -822780739
            1834227364 -1086559271 -1087832054</internalNodes>
          <leafValues>
            -4.9258828163146973e-01 5.7623249292373657e-01</leafValues></_>
        <_>
          <internalNodes>
            0 -1 12 -1066798910 -1325203831 800125048 1780850433
            -1916608882 1464358772 1077043713 1935927171</internalNodes>
          <leafValues>
            -4.2606529593467712e-01 6.5722024440765381e-01</leafValues></_>
        <_>
          <internalNodes>
            0 -1 119 134484817 286294032 20767 -1860794368 402653184
            -402505600 -2143284775 -1195372533</internalNodes>
          <leafValues>
            -5.4665786027908325e-01 5.3517121076583862e-01</leafValues></_>
        <_>
          <internalNodes>
            0 -1 157 -601509356 1613902340 1923233130 -1725628873
            875904549 -801719260 -1183481864 -1327500145</internalNodes>
          <leafValues>
            -4.4764581322669983e-01 6.0678309202194214e-01</leafValues></_>
        <_>
          <internalNodes>
            0 -1 135 -20596776 -731578652 -1091765033 -1310589698
            1978554268 610598756 1832164695 -1182546230</internalNodes>
          <leafValues>
            -4.3032059073448181e-01 6.7187619209289551e-01</leafValues></_>
        <_>
          <internalNodes>
            0 -1 143 -1138552513 427305312 -1358955525 -1578270979
            -21005099 -1594491020 -34210055 -1464340738</internalNodes>
          <leafValues>
            -4.6294042468070984e-01 6.3282668590545654e-01</leafValues></_></weakClassifiers></_>
    <!-- stage 8 -->
    <_>
      <maxWeakCount>12</maxWeakCount>
      <stageThreshold>-9.1934770345687866e-01</stageThreshold>
      <weakClassifiers>
        <_>
          <internalNodes>
            0 -1 201 -1056769 -1361051717 -1074037249 -1360879649
            -21037057 2130640383 -34087425 -385884165</internalNodes>
          <leafValues>
            -2.6981782913208008e-01 5.6553149223327637e-01</leafValues></_>
        <_>
          <internalNodes>
            0 -1 150 114046965 -12752550 -1660862499 2136986591
            -259130705 -1182218088 -612197953 -1345574596</internalNodes>
          <leafValues>
            -3.5994148254394531e-01 3.5454213619232178e-01</leafValues></_>
        <_>
          <internalNodes>
            0 -1 85 2026288859 747683030 1212519125 -1897307181
            1510822089 -23879510 -105140242 787427056</internalNodes>
          <leafValues>
            -4.6299439668655396e-01 2.8417545557022095e-01</leafValues></_>
        <_>
          <internalNodes>
            0 -1 187 -218643353 1350434046 -1392840991 1080065634
            -1535128532 -29409289 -1603533790 -252710977</internalNodes>
          <leafValues>
            -3.2870957255363464e-01 3.8431081175804138e-01</leafValues></_>
        <_>
          <internalNodes>
            0 -1 88 -866786419 1963295559 941085925 -351663601
            -902902844 1833461917 -848867965 -322173119</internalNodes>
          <leafValues>
            -3.9339298009872437e-01 3.1261357665061951e-01</leafValues></_>
        <_>
          <internalNodes>
            0 -1 62 -327418205 1565620978 -272289901 1571095110
            1420516247 1954689173 1359616123 1947726803</internalNodes>
          <leafValues>
            -3.9479294419288635e-01 3.3618196845054626e-01</leafValues></_>
        <_>
          <internalNodes>
            0 -1 51 201651903 -111312490 17947477 -574210029 365111026
            -142587713 2063940115 -4887945</internalNodes>
          <leafValues>
            -3.6352428793907166e-01 3.5091146826744080e-01</leafValues></_>
        <_>
          <internalNodes>
            0 -1 163 -227541104 1961914373 1880151506 877908195
            -502377579 -77167953 1093718507 880278527</internalNodes>
          <leafValues>
            -4.1391727328300476e-01 3.3488240838050842e-01</leafValues></_>
        <_>
          <internalNodes>
            0 -1 131 -1052694308 1506283941 -783249131 1531351975
            940155231 -37215847 173598199 286516019</internalNodes>
          <leafValues>
            -4.1429689526557922e-01 3.1144937872886658e-01</leafValues></_>
        <_>
          <internalNodes>
            0 -1 30 -520887501 22446219 -527249272 25862914 -1030696731
            1497831623 -1022962751 -243796665</internalNodes>
          <leafValues>
            -3.6236590147018433e-01 3.6042109131813049e-01</leafValues></_>
        <_>
          <internalNodes>
            0 -1 113 4504436 -734265259 491887257 -4394806 -1736279628
            -1109557085 441983725 -1896603600</internalNodes>
          <leafValues>
            -4.4667878746986389e-01 2.9248023033142090e-01</leafValues></_>
        <_>
          <internalNodes>
            0 -1 151 477393621 1069424614 1065350069 926265215
            -1453390092 -1418362889 784203679 -1082583693</internalNodes>
          <leafValues>
            -3.0246004462242126e-01 4.3182775378227234e-01</leafValues></_></weakClassifiers></_>
    <!-- stage 9 -->
    <_>
      <maxWeakCount>9</maxWeakCount>
      <stageThreshold>-1.2070621252059937e+00</stageThreshold>
      <weakClassifiers>
        <_>
          <internalNodes>
            0 -1 50 -638361865 -33025 -229505 -202113166 787371124
            2138046455 -990743293 -9046941</internalNodes>
          <leafValues>
            -3.9146122336387634e-01 4.8691099882125854e-01</leafValues></_>
        <_>
          <internalNodes>
            0 -1 114 469807924 897418346 1072467101 1060474619
            -671252503 -1210728555 -113332561 -1349710326</internalNodes>
          <leafValues>
            -3.9365625381469727e-01 4.4656723737716675e-01</leafValues></_>
        <_>
          <internalNodes>
            0 -1 181 -220464622 -196961 788430590 -231293226 -940176818
            -61907619 -1795162676 -21235761</internalNodes>
          <leafValues>
            -2.8207296133041382e-01 5.4743987321853638e-01</leafValues></_>
        <_>
          <internalNodes>
            0 -1 32 898760653 2097599255 -2147462868 -1344488996
            21045792 -1438645941 -1958494805 981165670</internalNodes>
          <leafValues>
            -5.4651355743408203e-01 2.9194438457489014e-01</leafValues></_>
        <_>
          <internalNodes>
            0 -1 125 1984820020 806933270 -1274986025 1019794002
            -904838947 -1449074559 -1685977921 -2000303591</internalNodes>
          <leafValues>
            -3.7892258167266846e-01 4.0193459391593933e-01</leafValues></_>
        <_>
          <internalNodes>
            0 -1 21 -993271385 206438402 1124273411 1438893267 -82736653
            25395348 1988184951 1427339059</internalNodes>
          <leafValues>
            -4.2221343517303467e-01 3.5247138142585754e-01</leafValues></_>
        <_>
          <internalNodes>
            0 -1 138 -763513584 355198679 -1812253705 -1611682149
            1047518974 -1293943521 -319147288 -184553845</internalNodes>
          <leafValues>
            -3.5081049799919128e-01 4.1678261756896973e-01</leafValues></_>
        <_>
          <internalNodes>
            0 -1 103 458504956 1155405911 288969037 1564403906
            -234800233 -124321656 -1056744525 -1091425952</internalNodes>
          <leafValues>
            -3.9931854605674744e-01 3.7642201781272888e-01</leafValues></_>
        <_>
          <internalNodes>
            0 -1 166 -321423683 -42876911 344092698 -594537557
            -1709714434 1631840295 -1342099092 875802947</internalNodes>
          <leafValues>
            -4.2388466000556946e-01 3.4842646121978760e-01</leafValues></_></weakClassifiers></_>
    <!-- stage 10 -->
    <_>
      <maxWeakCount>10</maxWeakCount>
      <stageThreshold>-1.5788396596908569e+00</stageThreshold>
      <weakClassifiers>
        <_>
          <internalNodes>
            0 -1 106 -1001148497 -1341550050 50970631 1501598107
            -1477605619 -1262997236 -2063291622 302795531</internalNodes>
          <leafValues>
            -4.5868346095085144e-01 4.1666665673255920e-01</leafValues></_>
        <_>
          <internalNodes>
            0 -1 28 -607652501 -1013593784 140829810 -1065003776
            1235241899 1119093383 -926432331 -703498397</internalNodes>
          <leafValues>
            -4.2549368739128113e-01 4.0806773304939270e-01</leafValues></_>
        <_>
          <internalNodes>
            0 -1 110 927732310 -245788390 -217735681 1561986221
            159456731 -626390340 1249915583 -1105461184</internalNodes>
          <leafValues>
            -4.3930953741073608e-01 3.7034168839454651e-01</leafValues></_>
        <_>
          <internalNodes>
            0 -1 55 1129716607 -1372832002 -1141038789 1555184699
            2087734911 800341879 -806265121 -355582949</internalNodes>
          <leafValues>
            -3.8433551788330078e-01 4.1229024529457092e-01</leafValues></_>
        <_>
          <internalNodes>
            0 -1 81 -210767230 -1607861470 -1426114016 -642285592
            1339016183 1215102893 123122928 -451942677</internalNodes>
          <leafValues>
            -2.9418036341667175e-01 5.4728704690933228e-01</leafValues></_>
        <_>
          <internalNodes>
            0 -1 193 -1114123877 514813238 616480628 11087854 -302027587
            889061375 -42210563 -1024852801</internalNodes>
          <leafValues>
            -3.7675109505653381e-01 4.0897399187088013e-01</leafValues></_>
        <_>
          <internalNodes>
            0 -1 91 -905647520 -532102935 1073758494 831291614
            -1191067244 -1966542718 1703074099 -631948297</internalNodes>
          <leafValues>
            -5.3234386444091797e-01 2.8458291292190552e-01</leafValues></_>
        <_>
          <internalNodes>
            0 -1 60 1678617796 -1878793724 1325670803 -167432125
            -1346144110 -662646142 1276737483 875904409</internalNodes>
          <leafValues>
            -4.4185960292816162e-01 3.4301009774208069e-01</leafValues></_>
        <_>
          <internalNodes>
            0 -1 126 -1079211452 -822702107 1845309158 -38826306
            -390549539 -1078068747 -1729676868 -88626618</internalNodes>
          <leafValues>
            -3.7228676676750183e-01 4.0905982255935669e-01</leafValues></_>
        <_>
          <internalNodes>
            0 -1 104 -1216864299 -737481 -1074382853 -13177221 921994490
            -1075875850 1602170283 -1903929836</internalNodes>
          <leafValues>
            -3.3074235916137695e-01 4.3622043728828430e-01</leafValues></_></weakClassifiers></_>
    <!-- stage 11 -->
    <_>
      <maxWeakCount>11</maxWeakCount>
      <stageThreshold>-1.5192688703536987e+00</stageThreshold>
      <weakClassifiers>
        <_>
          <internalNodes>
            0 -1 100 -621552687 -706220217 805299829 2109681190
            -403339419 -18443 -6699057 -1349712122</internalNodes>
          <leafValues>
            -3.5452181100845337e-01 4.8326113820075989e-01</leafValues></_>
        <_>
          <internalNodes>
            0 -1 87 -313161568 356131386 -1075101859 843179691
            1174156949 433977285 -856814135 -1905525205</internalNodes>
          <leafValues>
            -3.7940061092376709e-01 3.9323163032531738e-01</leafValues></_>
        <_>
          <internalNodes>
            0 -1 65 -606119749 -741097137 -536788463 -229334847
            -130852782 -921567230 -1090368699 -163089593</internalNodes>
          <leafValues>
            -4.2802742123603821e-01 3.4323465824127197e-01</leafValues></_>
        <_>
          <internalNodes>
            0 -1 175 -168956926 -545419698 -356549890 -756289813
            -594143744 775384396 -126951700 -230712289</internalNodes>
          <leafValues>
            -3.2296058535575867e-01 4.5554488897323608e-01</leafValues></_>
        <_>
          <internalNodes>
            0 -1 127 1002347741 -564225593 -2078554793 -33770509
            -1198199075 -139611455 -902005063 -1392759740</internalNodes>
          <leafValues>
            -5.0278532505035400e-01 2.6576596498489380e-01</leafValues></_>
        <_>
          <internalNodes>
            0 -1 171 1524103886 885036868 -702180099 1779348535
            -745932104 -1266053096 1900350740 1616635143</internalNodes>
          <leafValues>
            -4.8313421010971069e-01 2.9644164443016052e-01</leafValues></_>
        <_>
          <internalNodes>
            0 -1 90 -329913433 -1409133077 -141520791 -1181834782
            1251821711 -929374023 -285055227 439111578</internalNodes>
          <leafValues>
            -3.7737131118774414e-01 3.7453114986419678e-01</leafValues></_>
        <_>
          <internalNodes>
            0 -1 71 672428500 1465177218 -1727921765 532971778
            1653089560 -90630008 1764976779 -1364897662</internalNodes>
          <leafValues>
            -3.9057651162147522e-01 3.4321781992912292e-01</leafValues></_>
        <_>
          <internalNodes>
            0 -1 162 1429714964 330862007 -1873362115 1569935744
            -936652596 830538329 1142983393 1078326079</internalNodes>
          <leafValues>
            -4.5422756671905518e-01 3.0835098028182983e-01</leafValues></_>
        <_>
          <internalNodes>
            0 -1 17 -892369566 213057794 1694516832 -1689795757
            -414989957 1271502947 -593156492 1124532454</internalNodes>
          <leafValues>
            -4.5254948735237122e-01 3.0470898747444153e-01</leafValues></_>
        <_>
          <internalNodes>
            0 -1 148 68973789 -2138077035 -1862264353 429854807
            -1467911489 -41320294 -326521410 -1417673816</internalNodes>
          <leafValues>
            -4.4438901543617249e-01 2.8551697731018066e-01</leafValues></_></weakClassifiers></_>
    <!-- stage 12 -->
    <_>
      <maxWeakCount>9</maxWeakCount>
      <stageThreshold>-1.5160988569259644e+00</stageThreshold>
      <weakClassifiers>
        <_>
          <internalNodes>
            0 -1 56 -903686238 -10116701 -1905723148 -946134685
            -920454835 -951977999 -756285797 -973864989</internalNodes>
          <leafValues>
            -3.7098559737205505e-01 5.6113904714584351e-01</leafValues></_>
        <_>
          <internalNodes>
            0 -1 102 -890964998 -262921671 1400984728 -2128216045
            1407283304 -528428855 -1014823338 -1985122393</internalNodes>
          <leafValues>
            -4.5013257861137390e-01 3.7997919321060181e-01</leafValues></_>
        <_>
          <internalNodes>
            0 -1 191 -484455681 -1560678411 -50331905 -1963081985
            1870651391 754892798 -1392652546 79427967</internalNodes>
          <leafValues>
            -3.4743389487266541e-01 4.8856416344642639e-01</leafValues></_>
        <_>
          <internalNodes>
            0 -1 20 -610623544 -654188276 -2147405688 873321183
            1628291344 688656392 8851493 1068180058</internalNodes>
          <leafValues>
            -5.7101106643676758e-01 2.8191658854484558e-01</leafValues></_>
        <_>
          <internalNodes>
            0 -1 176 -151261566 924443541 -1610596344 -1609531386
            1208090888 256066049 -1808708034 1886356683</internalNodes>
          <leafValues>
            -4.4112509489059448e-01 3.7005445361137390e-01</leafValues></_>
        <_>
          <internalNodes>
            0 -1 66 1112203407 325714915 269951182 166961927 202722689
            406855825 2047089183 1948595895</internalNodes>
          <leafValues>
            -5.2162998914718628e-01 2.5959298014640808e-01</leafValues></_>
        <_>
          <internalNodes>
            0 -1 38 1117305832 -712987230 -1056891247 516368655
            1350699307 134676992 2021897612 788411322</internalNodes>
          <leafValues>
            -5.2858221530914307e-01 2.9554405808448792e-01</leafValues></_>
        <_>
          <internalNodes>
            0 -1 48 -338376343 -612691893 302596319 -804225008
            -1291699931 -267190149 -1819815396 1885598295</internalNodes>
          <leafValues>
            -4.8108991980552673e-01 2.7382794022560120e-01</leafValues></_>
        <_>
          <internalNodes>
            0 -1 108 1883569428 -787350225 1858056126 -1183512520
            1181774840 -554582530 2129110814 -2005061830</internalNodes>
          <leafValues>
            -3.4158238768577576e-01 4.2411065101623535e-01</leafValues></_></weakClassifiers></_>
    <!-- stage 13 -->
    <_>
      <maxWeakCount>10</maxWeakCount>
      <stageThreshold>-1.2333467006683350e+00</stageThreshold>
      <weakClassifiers>
        <_>
          <internalNodes>
            0 -1 137 -804554736 349016086 1413520532 -577716154 35133560
            -529987997 536903817 2867099</internalNodes>
          <leafValues>
            -5.0093948841094971e-01 3.9922133088111877e-01</leafValues></_>
        <_>
          <internalNodes>
            0 -1 158 426194805 1061841855 1526136829 -1913656341
            -1062750789 -1342186001 -1929565000 -1084548949</internalNodes>
          <leafValues>
            -3.3429446816444397e-01 5.3657150268554688e-01</leafValues></_>
        <_>
          <internalNodes>
            0 -1 57 -787340446 -24407216 1430348228 1348743368
            1795408815 -828534648 1637300655 1279381344</internalNodes>
          <leafValues>
            -4.6590399742126465e-01 3.6871680617332458e-01</leafValues></_>
        <_>
          <internalNodes>
            0 -1 144 861433945 -1121117861 -1862220417 1060929551
            -1052120837 -7321469 -360630149 1061895084</internalNodes>
          <leafValues>
            -4.3735006451606750e-01 3.7785118818283081e-01</leafValues></_>
        <_>
          <internalNodes>
            0 -1 92 550525142 1888544527 -2076098099 -670515042
            -268072572 -618560895 -117230675 -1444927436</internalNodes>
          <leafValues>
            -4.5532637834548950e-01 3.5766655206680298e-01</leafValues></_>
        <_>
          <internalNodes>
            0 -1 13 -892344689 1972375944 1073799652 -581576958
            1880220368 1929577522 1561412405 -217582491</internalNodes>
          <leafValues>
            -4.3682751059532166e-01 3.5134580731391907e-01</leafValues></_>
        <_>
          <internalNodes>
            0 -1 195 -355807474 1083654536 -536870886 -2133557120
            -1977040896 1627488256 -922113963 -257172734</internalNodes>
          <leafValues>
            -4.3672004342079163e-01 3.6228066682815552e-01</leafValues></_>
        <_>
          <internalNodes>
            0 -1 42 -791941013 -665731053 1342265807 -1836920370
            -360682907 857440296 -217366353 -415794393</internalNodes>
          <leafValues>
            -4.0177533030509949e-01 3.6940959095954895e-01</leafValues></_>
        <_>
          <internalNodes>
            0 -1 45 978800719 -1021454897 -1073737586 -16105393
            1108375865 -116719445 -379887320 2011460531</internalNodes>
          <leafValues>
            -4.5698148012161255e-01 3.1792017817497253e-01</leafValues></_>
        <_>
          <internalNodes>
            0 -1 0 1252180578 -1873674073 -1853766654 1074139269
            864565400 -870839633 1787267225 1958967363</internalNodes>
          <leafValues>
            -5.0932443141937256e-01 2.9869404435157776e-01</leafValues></_></weakClassifiers></_>
    <!-- stage 14 -->
    <_>
      <maxWeakCount>11</maxWeakCount>
      <stageThreshold>-1.1231441497802734e+00</stageThreshold>
      <weakClassifiers>
        <_>
          <internalNodes>
            0 -1 202 -201329921 -1358959125 -1351663617 -1937965953
            -1627392002 -287233 -269625361 -896797505</internalNodes>
          <leafValues>
            -2.9149094223976135e-01 5.9674960374832153e-01</leafValues></_>
        <_>
          <internalNodes>
            0 -1 83 -653334878 -1064435800 -16877918 -245125277
            -2048002592 149745654 -134875248 -171972633</internalNodes>
          <leafValues>
            -2.9614567756652832e-01 4.9759075045585632e-01</leafValues></_>
        <_>
          <internalNodes>
            0 -1 129 9190484 487989712 889389399 391123135 1788367833
            -85260150 -569823301 236460128</internalNodes>
          <leafValues>
            -6.1386400461196899e-01 2.5638777017593384e-01</leafValues></_>
        <_>
          <internalNodes>
            0 -1 169 -11013630 -212414116 570458129 1612235359
            -1987264448 -713031131 1543538744 -1061310537</internalNodes>
          <leafValues>
            -4.7528421878814697e-01 2.8697699308395386e-01</leafValues></_>
        <_>
          <internalNodes>
            0 -1 116 1347713824 1413815007 305430708 -217928246
            1497652185 385877057 1032752013 773492367</internalNodes>
          <leafValues>
            -4.7241500020027161e-01 3.3058431744575500e-01</leafValues></_>
        <_>
          <internalNodes>
            0 -1 18 -922754369 -81610894 -942084301 1437857586
            1417019122 -26935308 -867828287 -9193485</internalNodes>
          <leafValues>
            -2.9753717780113220e-01 5.2394181489944458e-01</leafValues></_>
        <_>
          <internalNodes>
            0 -1 69 609102050 -1920964005 9965975 495335322 1547718748
            -92077921 -913744257 -807378148</internalNodes>
          <leafValues>
            -5.3918367624282837e-01 2.6724049448966980e-01</leafValues></_>
        <_>
          <internalNodes>
            0 -1 84 578554776 1549664734 1224757713 215097438 693287601
            -81559373 24725066 -1470809242</internalNodes>
          <leafValues>
            -4.4195666909217834e-01 3.0168488621711731e-01</leafValues></_>
        <_>
          <internalNodes>
            0 -1 37 -881067728 -1006469050 1627504674 -1601253354
            1090725989 704782338 -535725788 -524309534</internalNodes>
          <leafValues>
            -4.5251977443695068e-01 3.0196845531463623e-01</leafValues></_>
        <_>
          <internalNodes>
            0 -1 124 98837716 -728117157 285299167 -1759819593
            2030268806 -74839895 185293757 677912608</internalNodes>
          <leafValues>
            -5.6728661060333252e-01 2.4746987223625183e-01</leafValues></_>
        <_>
          <internalNodes>
            0 -1 52 441431554 142913682 -1459514121 1041262686
            1342834689 1635928460 -486452228 819273830</internalNodes>
          <leafValues>
            -6.5326547622680664e-01 2.1216121315956116e-01</leafValues></_></weakClassifiers></_>
    <!-- stage 15 -->
    <_>
      <maxWeakCount>6</maxWeakCount>
      <stageThreshold>-1.1655994653701782e+00</stageThreshold>
      <weakClassifiers>
        <_>
          <internalNodes>
            0 -1 31 -653868649 -1844559868 28672 1276780563 570591873
            -990871422 -2097069630 -535494511</internalNodes>
          <leafValues>
            -5.7403951883316040e-01 4.6369388699531555e-01</leafValues></_>
        <_>
          <internalNodes>
            0 -1 82 -100210752 -2004320062 1091567746 323813602
            -1583861559 8391048 -1878806399 44298627</internalNodes>
          <leafValues>
            -5.5079352855682373e-01 4.4321376085281372e-01</leafValues></_>
        <_>
          <internalNodes>
            0 -1 67 1087506368 -1279614710 -1876618879 -1063813112
            8926169 646054400 -1031612280 1707081753</internalNodes>
          <leafValues>
            -5.5855882167816162e-01 3.7693831324577332e-01</leafValues></_>
        <_>
          <internalNodes>
            0 -1 95 269486996 57716221 1071971505 -172384840 -1625024541
            -1077280795 -1772812817 -828126198</internalNodes>
          <leafValues>
            -4.0227234363555908e-01 5.0260686874389648e-01</leafValues></_>
        <_>
          <internalNodes>
            0 -1 200 -2143173892 -959332350 1342177305 -2003828537
            -1878859638 -2146729981 -1056784227 -1936751909</internalNodes>
          <leafValues>
            -4.5021843910217285e-01 4.0492776036262512e-01</leafValues></_>
        <_>
          <internalNodes>
            0 -1 25 -1062997305 738764580 2130431539 -550261376
            1095173553 -303005827 1077167216 -138465750</internalNodes>
          <leafValues>
            -4.2036014795303345e-01 4.5933932065963745e-01</leafValues></_></weakClassifiers></_>
    <!-- stage 16 -->
    <_>
      <maxWeakCount>13</maxWeakCount>
      <stageThreshold>-9.9993151426315308e-01</stageThreshold>
      <weakClassifiers>
        <_>
          <internalNodes>
            0 -1 159 559878783 536526523 2147417853 1040166635
            -1347436579 -336363657 -1632657747 -1880100885</internalNodes>
          <leafValues>
            -3.1166040897369385e-01 5.0921863317489624e-01</leafValues></_>
        <_>
          <internalNodes>
            0 -1 185 -800602884 1886511766 -872381691 269537631
            -1472282496 -1686061046 113280000 -803147101</internalNodes>
          <leafValues>
            -4.3729844689369202e-01 3.0245041847229004e-01</leafValues></_>
        <_>
          <internalNodes>
            0 -1 44 1699707767 1393775119 1073828115 2143572122
            1083396607 714172611 -2128481678 2001761911</internalNodes>
          <leafValues>
            -4.8188477754592896e-01 2.4639241397380829e-01</leafValues></_>
        <_>
          <internalNodes>
            0 -1 99 -733479426 2090376798 1129535621 -1727868318
            570658288 -105471326 -2101087886 967310311</internalNodes>
          <leafValues>
            -3.6709862947463989e-01 3.6760857701301575e-01</leafValues></_>
        <_>
          <internalNodes>
            0 -1 74 -47197949 -1448170968 1023354418 -67269905
            -1745357169 -1677789369 -192965292 -1347452741</internalNodes>
          <leafValues>
            -2.7956086397171021e-01 4.5154735445976257e-01</leafValues></_>
        <_>
          <internalNodes>
            0 -1 152 107108341 300286164 -1862223621 464077726
            -1375194695 -73842534 1242131133 460860648</internalNodes>
          <leafValues>
            -5.1094472408294678e-01 2.2836053371429443e-01</leafValues></_>
        <_>
          <internalNodes>
            0 -1 133 -1879048064 -1324351002 201858477 -1660059437
            1481656473 -1131689830 755267885 -1190393076</internalNodes>
          <leafValues>
            -3.4095036983489990e-01 3.6140027642250061e-01</leafValues></_>
        <_>
          <internalNodes>
            0 -1 174 -92934642 -783215971 -2138025348 -704187757
            -771028410 -1072496640 -1777124482 -263985333</internalNodes>
          <leafValues>
            -3.7423220276832581e-01 3.0648797750473022e-01</leafValues></_>
        <_>
          <internalNodes>
            0 -1 140 -145755682 -754858073 -1073295146 537055234
            1610887185 -1878458047 -1844658013 771617755</internalNodes>
          <leafValues>
            -3.5930532217025757e-01 3.3279991149902344e-01</leafValues></_>
        <_>
          <internalNodes>
            0 -1 73 1108275894 1577653254 692061315 125772035 -796812615
            638649065 -397633312 1717990323</internalNodes>
          <leafValues>
            -4.2525753378868103e-01 2.8135582804679871e-01</leafValues></_>
        <_>
          <internalNodes>
            0 -1 123 5250356 1534350692 -1055357473 -1076079165
            1241838256 -1181974341 713096107 -1910242748</internalNodes>
          <leafValues>
            -4.6830418705940247e-01 2.4153983592987061e-01</leafValues></_>
        <_>
          <internalNodes>
            0 -1 72 173287894 1402781779 -1912594593 2056599106
            808132952 -7667654 1300237114 2144023066</internalNodes>
          <leafValues>
            -3.4810531139373779e-01 3.4480994939804077e-01</leafValues></_>
        <_>
          <internalNodes>
            0 -1 27 -301925694 -1675750312 -1073180396 -1590556302
            1073840 -2143051521 1469410484 1348945523</internalNodes>
          <leafValues>
            -5.8498954772949219e-01 2.0381550490856171e-01</leafValues></_></weakClassifiers></_>
    <!-- stage 17 -->
    <_>
      <maxWeakCount>11</maxWeakCount>
      <stageThreshold>-1.4459228515625000e+00</stageThreshold>
      <weakClassifiers>
        <_>
          <internalNodes>
            0 -1 192 -73142309 146800508 2147479549 618651509
            -1342275585 -1426588291 -50466817 10482426</internalNodes>
          <leafValues>
            -3.6285713315010071e-01 5.0800001621246338e-01</leafValues></_>
        <_>
          <internalNodes>
            0 -1 75 -1059546153 1202868774 -737033656 1279224531
            -1062434154 -1064823144 -103949510 -982703330</internalNodes>
          <leafValues>
            -3.6309492588043213e-01 3.8381615281105042e-01</leafValues></_>
        <_>
          <internalNodes>
            0 -1 49 177337459 -753287845 1073762818 1439856147 67200561
            -902823306 1476552498 1735685747</internalNodes>
          <leafValues>
            -5.6931984424591064e-01 2.3289540410041809e-01</leafValues></_>
        <_>
          <internalNodes>
            0 -1 118 850408117 1036720198 -720810545 1595441294
            -2146948431 -561452920 705301242 675293412</internalNodes>
          <leafValues>
            -4.2693480849266052e-01 3.0496698617935181e-01</leafValues></_>
        <_>
          <internalNodes>
            0 -1 179 -67371075 -1201417744 1811926628 -1574175749
            -386019590 1021877500 1819118852 -935333973</internalNodes>
          <leafValues>
            -3.5582986474037170e-01 3.7049904465675354e-01</leafValues></_>
        <_>
          <internalNodes>
            0 -1 76 999096574 -746005105 2031115600 -922034017
            -364774974 -1156923256 -788222418 -1195101689</internalNodes>
          <leafValues>
            -3.7270498275756836e-01 3.2109615206718445e-01</leafValues></_>
        <_>
          <internalNodes>
            0 -1 59 1152923954 -70233647 -1073101935 1836525612
            1342432611 1537245807 -950615581 105147204</internalNodes>
          <leafValues>
            -4.9280890822410583e-01 2.5909376144409180e-01</leafValues></_>
        <_>
          <internalNodes>
            0 -1 120 907285365 1607110740 1090576601 1464570071
            -1601496184 -83541878 -1692927046 1044195774</internalNodes>
          <leafValues>
            -4.2194944620132446e-01 2.8373837471008301e-01</leafValues></_>
        <_>
          <internalNodes>
            0 -1 3 119774978 296782850 18010458 2140889312 -1443891763
            154141189 719727 1271130055</internalNodes>
          <leafValues>
            -3.6599242687225342e-01 3.4763991832733154e-01</leafValues></_>
        <_>
          <internalNodes>
            0 -1 173 1884527104 1644368779 -518287260 336799387
            146911240 1117339663 -105625600 1784150559</internalNodes>
          <leafValues>
            -4.0899005532264709e-01 3.0501997470855713e-01</leafValues></_>
        <_>
          <internalNodes>
            0 -1 29 -894970057 774371253 -17057165 -2012770504
            2109150705 -1346928705 -736013007 -268179933</internalNodes>
          <leafValues>
            -3.0547016859054565e-01 4.2866179347038269e-01</leafValues></_></weakClassifiers></_>
    <!-- stage 18 -->
    <_>
      <maxWeakCount>12</maxWeakCount>
      <stageThreshold>-1.0766675472259521e+00</stageThreshold>
      <weakClassifiers>
        <_>
          <internalNodes>
            0 -1 54 -536915081 -33281 1065156607 -8421649 1835879675
            1879031675 1744707071 2113368371</internalNodes>
          <leafValues>
            -3.5714286565780640e-01 4.3768545985221863e-01</leafValues></_>
        <_>
          <internalNodes>
            0 -1 8 1730324150 -606439746 -335606803 -203231438
            1702807231 402096085 1742031098 1339127655</internalNodes>
          <leafValues>
            -3.2321649789810181e-01 4.0435409545898438e-01</leafValues></_>
        <_>
          <internalNodes>
            0 -1 194 -419695845 -106295619 -293667073 1084784179
            137698835 -1392508929 536098348 -925892649</internalNodes>
          <leafValues>
            -2.6468577980995178e-01 4.7673058509826660e-01</leafValues></_>
        <_>
          <internalNodes>
            0 -1 155 -432837206 1912710996 -728579638 -1706143036
            -365960664 589447427 545308860 807777275</internalNodes>
          <leafValues>
            -5.1954293251037598e-01 2.2232910990715027e-01</leafValues></_>
        <_>
          <internalNodes>
            0 -1 142 1585652 -858205747 -2080013027 -1811151661
            1208543413 -1173479407 193702907 -1363664380</internalNodes>
          <leafValues>
            -4.3958047032356262e-01 2.9743945598602295e-01</leafValues></_>
        <_>
          <internalNodes>
            0 -1 107 1884065878 -804867838 4297288 442266368 -1073643352
            -1065320189 -2146720884 1064251291</internalNodes>
          <leafValues>
            -4.7195374965667725e-01 2.8436285257339478e-01</leafValues></_>
        <_>
          <internalNodes>
            0 -1 79 -341049393 754592932 787885808 -747771934 340787179
            1155551136 1693939127 -1061168681</internalNodes>
          <leafValues>
            -2.7767869830131531e-01 4.8914083838462830e-01</leafValues></_>
        <_>
          <internalNodes>
            0 -1 167 282200252 -1271000568 -1069178874 -1160543008
            -1308128303 1342214144 -1857385844 -667877308</internalNodes>
          <leafValues>
            -5.1971673965454102e-01 2.4256700277328491e-01</leafValues></_>
        <_>
          <internalNodes>
            0 -1 105 -234834768 -1056910837 134316445 869728955
            570441853 756097042 1744872061 671604814</internalNodes>
          <leafValues>
            -3.7571075558662415e-01 3.5023045539855957e-01</leafValues></_>
        <_>
          <internalNodes>
            0 -1 7 -1233119326 -174977021 339832839 921054838
            -2053490616 -2142764383 566814091 904211799</internalNodes>
          <leafValues>
            -5.2296662330627441e-01 2.3954768478870392e-01</leafValues></_>
        <_>
          <internalNodes>
            0 -1 112 -934941824 1506828936 385978624 1368752774
            -1874844931 -1204723191 1660944423 -340458721</internalNodes>
          <leafValues>
            -4.4095519185066223e-01 2.8377205133438110e-01</leafValues></_>
        <_>
          <internalNodes>
            0 -1 115 1456319441 1442598721 2059070427 2029168463
            1595221849 -11061810 -71519283 -1465253202</internalNodes>
          <leafValues>
            -2.7391049265861511e-01 4.6365576982498169e-01</leafValues></_></weakClassifiers></_>
    <!-- stage 19 -->
    <_>
      <maxWeakCount>11</maxWeakCount>
      <stageThreshold>-1.4210842847824097e+00</stageThreshold>
      <weakClassifiers>
        <_>
          <internalNodes>
            0 -1 200 -194777893 -931238149 -33043 -2005788418 -285556738
            -1610809477 -805395009 -118753605</internalNodes>
          <leafValues>
            -3.2132130861282349e-01 5.0363713502883911e-01</leafValues></_>
        <_>
          <internalNodes>
            0 -1 9 -1733565746 -1985466912 -2139610400 1698259703
            -1267538273 2096322011 504685049 1400890243</internalNodes>
          <leafValues>
            -3.5951080918312073e-01 4.3389382958412170e-01</leafValues></_>
        <_>
          <internalNodes>
            0 -1 146 538476860 861143715 352321951 926417475 -1836994319
            -360181751 -2147447880 -1668806592</internalNodes>
          <leafValues>
            -4.2455518245697021e-01 3.6741489171981812e-01</leafValues></_>
        <_>
          <internalNodes>
            0 -1 2 -1072955933 1437178772 218820224 -1145831642
            265854427 1307641813 -1071410945 -238027785</internalNodes>
          <leafValues>
            -2.4525013566017151e-01 6.4187228679656982e-01</leafValues></_>
        <_>
          <internalNodes>
            0 -1 80 -1664958793 486359030 1148510112 1589499625
            1168963577 -570671114 -51773654 -597854846</internalNodes>
          <leafValues>
            -3.6074259877204895e-01 4.0921351313591003e-01</leafValues></_>
        <_>
          <internalNodes>
            0 -1 182 -730415230 2123575074 619592236 451603473
            -328133623 567521092 -1149792805 -266222911</internalNodes>
          <leafValues>
            -3.4969711303710938e-01 4.5651647448539734e-01</leafValues></_>
        <_>
          <internalNodes>
            0 -1 145 -433750191 1429609060 766094990 -314736706
            620625324 -2068908567 476623964 -1459120485</internalNodes>
          <leafValues>
            -3.4272524714469910e-01 4.7239902615547180e-01</leafValues></_>
        <_>
          <internalNodes>
            0 -1 134 557099408 -932834796 -1593835017 -550395889 2177280
            822331520 -804154691 -1997173756</internalNodes>
          <leafValues>
            -4.6426999568939209e-01 3.3842188119888306e-01</leafValues></_>
        <_>
          <internalNodes>
            0 -1 58 1212199698 1359347928 1092911115 -553547768
            -1853585141 285802496 1661026858 1804165152</internalNodes>
          <leafValues>
            -3.9532575011253357e-01 4.2256262898445129e-01</leafValues></_>
        <_>
          <internalNodes>
            0 -1 164 -2041139113 20971610 285229137 402915393 98513
            -2105376512 -1744803175 -2006433048</internalNodes>
          <leafValues>
            -4.6388402581214905e-01 3.7589585781097412e-01</leafValues></_>
        <_>
          <internalNodes>
            0 -1 98 -916660447 334556177 -705201606 -1345896849
            1089955196 -2133480579 -998982758 -1354814153</internalNodes>
          <leafValues>
            -2.9532149434089661e-01 5.7929551601409912e-01</leafValues></_></weakClassifiers></_></stages>
  <features>
    <_>
      <rect>
        0 0 7 5</rect></_>
    <_>
      <rect>
        0 0 11 4</rect></_>
    <_>
      <rect>
        0 1 4 5</rect></_>
    <_>
      <rect>
        0 1 4 6</rect></_>
    <_>
      <rect>
        0 2 8 5</rect></_>
    <_>
      <rect>
        0 3 7 7</rect></_>
    <_>
      <rect>
        0 4 5 4</rect></_>
    <_>
      <rect>
        0 4 9 5</rect></_>
    <_>
      <rect>
        0 5 9 1</rect></_>
    <_>
      <rect>
        0 6 5 7</rect></_>
    <_>
      <rect>
        0 6 7 8</rect></_>
    <_>
      <rect>
        0 6 10 7</rect></_>
    <_>
      <rect>
        0 9 3 5</rect></_>
    <_>
      <rect>
        0 9 5 6</rect></_>
    <_>
      <rect>
        0 9 7 7</rect></_>
    <_>
      <rect>
        0 9 8 10</rect></_>
    <_>
      <rect>
        0 9 11 8</rect></_>
    <_>
      <rect>
        0 10 3 3</rect></_>
    <_>
      <rect>
        0 10 4 7</rect></_>
    <_>
      <rect>
        0 10 5 8</rect></_>
    <_>
      <rect>
        0 10 11 10</rect></_>
    <_>
      <rect>
        0 11 4 2</rect></_>
    <_>
      <rect>
        0 12 3 5</rect></_>
    <_>
      <rect>
        0 13 2 3</rect></_>
    <_>
      <rect>
        0 13 10 3</rect></_>
    <_>
      <rect>
        0 14 2 2</rect></_>
    <_>
      <rect>
        0 14 2 5</rect></_>
    <_>
      <rect>
        0 14 5 3</rect></_>
    <_>
      <rect>
        0 16 6 5</rect></_>
    <_>
      <rect>
        0 17 1 3</rect></_>
    <_>
      <rect>
        0 17 2 3</rect></_>
    <_>
      <rect>
        0 17 8 4</rect></_>
    <_>
      <rect>
        0 17 11 7</rect></_>
    <_>
      <rect>
        0 19 2 2</rect></_>
    <_>
      <rect>
        0 19 6 6</rect></_>
    <_>
      <rect>
        0 20 1 2</rect></_>
    <_>
      <rect>
        0 21 1 2</rect></_>
    <_>
      <rect>
        0 22 1 1</rect></_>
    <_>
      <rect>
        0 22 13 6</rect></_>
    <_>
      <rect>
        0 23 1 2</rect></_>
    <_>
      <rect>
        0 23 3 3</rect></_>
    <_>
      <rect>
        0 24 2 2</rect></_>
    <_>
      <rect>
        0 25 2 1</rect></_>
    <_>
      <rect>
        0 25 2 2</rect></_>
    <_>
      <rect>
        0 25 3 3</rect></_>
    <_>
      <rect>
        0 26 6 3</rect></_>
    <_>
      <rect>
        0 26 9 4</rect></_>
    <_>
      <rect>
        0 27 1 1</rect></_>
    <_>
      <rect>
        0 27 2 1</rect></_>
    <_>
      <rect>
        0 27 6 2</rect></_>
    <_>
      <rect>
        0 29 2 2</rect></_>
    <_>
      <rect>
        0 29 7 1</rect></_>
    <_>
      <rect>
        0 29 13 2</rect></_>
    <_>
      <rect>
        0 30 1 1</rect></_>
    <_>
      <rect>
        0 31 2 3</rect></_>
    <_>
      <rect>
        0 34 6 2</rect></_>
    <_>
      <rect>
        1 1 5 5</rect></_>
    <_>
      <rect>
        1 2 13 7</rect></_>
    <_>
      <rect>
        1 4 8 2</rect></_>
    <_>
      <rect>
        1 4 12 7</rect></_>
    <_>
      <rect>
        1 4 13 4</rect></_>
    <_>
      <rect>
        1 5 9 6</rect></_>
    <_>
      <rect>
        1 8 7 3</rect></_>
    <_>
      <rect>
        1 16 13 6</rect></_>
    <_>
      <rect>
        1 25 13 5</rect></_>
    <_>
      <rect>
        1 28 1 1</rect></_>
    <_>
      <rect>
        2 9 6 3</rect></_>
    <_>
      <rect>
        2 10 8 4</rect></_>
    <_>
      <rect>
        2 31 7 1</rect></_>
    <_>
      <rect>
        2 32 7 2</rect></_>
    <_>
      <rect>
        2 34 7 2</rect></_>
    <_>
      <rect>
        2 34 8 1</rect></_>
    <_>
      <rect>
        2 34 10 1</rect></_>
    <_>
      <rect>
        3 8 7 2</rect></_>
    <_>
      <rect>
        3 10 1 1</rect></_>
    <_>
      <rect>
        3 11 6 5</rect></_>
    <_>
      <rect>
        3 20 11 4</rect></_>
    <_>
      <rect>
        3 31 12 3</rect></_>
    <_>
      <rect>
        3 37 6 1</rect></_>
    <_>
      <rect>
        4 7 2 2</rect></_>
    <_>
      <rect>
        4 9 5 7</rect></_>
    <_>
      <rect>
        4 10 1 1</rect></_>
    <_>
      <rect>
        4 10 2 1</rect></_>
    <_>
      <rect>
        4 11 1 1</rect></_>
    <_>
      <rect>
        4 23 8 2</rect></_>
    <_>
      <rect>
        4 25 12 5</rect></_>
    <_>
      <rect>
        4 27 6 2</rect></_>
    <_>
      <rect>
        5 0 11 4</rect></_>
    <_>
      <rect>
        5 8 9 6</rect></_>
    <_>
      <rect>
        5 9 1 1</rect></_>
    <_>
      <rect>
        5 9 10 5</rect></_>
    <_>
      <rect>
        6 13 9 4</rect></_>
    <_>
      <rect>
        6 24 6 2</rect></_>
    <_>
      <rect>
        6 29 6 1</rect></_>
    <_>
      <rect>
        6 34 7 2</rect></_>
    <_>
      <rect>
        7 1 7 3</rect></_>
    <_>
      <rect>
        7 3 8 5</rect></_>
    <_>
      <rect>
        7 11 8 7</rect></_>
    <_>
      <rect>
        7 12 4 3</rect></_>
    <_>
      <rect>
        7 15 11 5</rect></_>
    <_>
      <rect>
        8 1 7 8</rect></_>
    <_>
      <rect>
        8 5 8 3</rect></_>
    <_>
      <rect>
        9 14 8 5</rect></_>
    <_>
      <rect>
        9 25 6 2</rect></_>
    <_>
      <rect>
        9 27 4 1</rect></_>
    <_>
      <rect>
        10 5 9 2</rect></_>
    <_>
      <rect>
        10 6 9 6</rect></_>
    <_>
      <rect>
        10 13 8 9</rect></_>
    <_>
      <rect>
        10 16 6 2</rect></_>
    <_>
      <rect>
        10 29 4 1</rect></_>
    <_>
      <rect>
        10 31 4 1</rect></_>
    <_>
      <rect>
        11 8 5 3</rect></_>
    <_>
      <rect>
        11 15 7 3</rect></_>
    <_>
      <rect>
        11 24 4 1</rect></_>
    <_>
      <rect>
        12 2 6 3</rect></_>
    <_>
      <rect>
        12 13 8 3</rect></_>
    <_>
      <rect>
        12 13 9 3</rect></_>
    <_>
      <rect>
        12 24 6 1</rect></_>
    <_>
      <rect>
        12 32 5 1</rect></_>
    <_>
      <rect>
        12 34 4 1</rect></_>
    <_>
      <rect>
        12 36 3 1</rect></_>
    <_>
      <rect>
        13 4 5 6</rect></_>
    <_>
      <rect>
        13 26 3 1</rect></_>
    <_>
      <rect>
        13 27 3 1</rect></_>
    <_>
      <rect>
        13 29 3 1</rect></_>
    <_>
      <rect>
        13 30 9 2</rect></_>
    <_>
      <rect>
        14 8 5 3</rect></_>
    <_>
      <rect>
        14 22 4 3</rect></_>
    <_>
      <rect>
        14 24 3 1</rect></_>
    <_>
      <rect>
        14 31 4 1</rect></_>
    <_>
      <rect>
        14 33 4 1</rect></_>
    <_>
      <rect>
        15 0 8 8</rect></_>
    <_>
      <rect>
        15 1 5 3</rect></_>
    <_>
      <rect>
        15 6 5 1</rect></_>
    <_>
      <rect>
        15 7 5 3</rect></_>
    <_>
      <rect>
        15 12 7 6</rect></_>
    <_>
      <rect>
        15 26 5 3</rect></_>
    <_>
      <rect>
        16 1 8 3</rect></_>
    <_>
      <rect>
        16 2 8 4</rect></_>
    <_>
      <rect>
        16 5 8 4</rect></_>
    <_>
      <rect>
        16 12 8 8</rect></_>
    <_>
      <rect>
        16 23 2 1</rect></_>
    <_>
      <rect>
        16 24 3 1</rect></_>
    <_>
      <rect>
        16 27 8 2</rect></_>
    <_>
      <rect>
        16 33 3 1</rect></_>
    <_>
      <rect>
        17 21 7 2</rect></_>
    <_>
      <rect>
        17 22 3 1</rect></_>
    <_>
      <rect>
        17 28 5 1</rect></_>
    <_>
      <rect>
        17 30 3 1</rect></_>
    <_>
      <rect>
        17 31 3 1</rect></_>
    <_>
      <rect>
        17 32 3 1</rect></_>
    <_>
      <rect>
        17 36 5 1</rect></_>
    <_>
      <rect>
        18 31 3 1</rect></_>
    <_>
      <rect>
        19 3 7 8</rect></_>
    <_>
      <rect>
        19 6 7 5</rect></_>
    <_>
      <rect>
        19 7 7 6</rect></_>
    <_>
      <rect>
        19 12 7 7</rect></_>
    <_>
      <rect>
        19 13 7 3</rect></_>
    <_>
      <rect>
        19 36 6 1</rect></_>
    <_>
      <rect>
        19 37 6 1</rect></_>
    <_>
      <rect>
        20 28 5 2</rect></_>
    <_>
      <rect>
        20 36 4 1</rect></_>
    <_>
      <rect>
        22 5 5 3</rect></_>
    <_>
      <rect>
        22 13 6 4</rect></_>
    <_>
      <rect>
        22 28 3 1</rect></_>
    <_>
      <rect>
        25 9 5 5</rect></_>
    <_>
      <rect>
        25 15 5 4</rect></_>
    <_>
      <rect>
        26 24 3 3</rect></_>
    <_>
      <rect>
        28 3 4 4</rect></_>
    <_>
      <rect>
        28 8 4 6</rect></_>
    <_>
      <rect>
        28 10 4 6</rect></_>
    <_>
      <rect>
        28 20 4 3</rect></_>
    <_>
      <rect>
        28 24 4 4</rect></_>
    <_>
      <rect>
        29 2 3 3</rect></_>
    <_>
      <rect>
        31 8 2 2</rect></_>
    <_>
      <rect>
        31 9 1 1</rect></_>
    <_>
      <rect>
        31 9 3 3</rect></_>
    <_>
      <rect>
        31 11 3 4</rect></_>
    <_>
      <rect>
        31 13 3 9</rect></_>
    <_>
      <rect>
        31 14 3 5</rect></_>
    <_>
      <rect>
        31 20 3 3</rect></_>
    <_>
      <rect>
        32 10 1 1</rect></_>
    <_>
      <rect>
        33 10 2 2</rect></_>
    <_>
      <rect>
        33 27 2 1</rect></_>
    <_>
      <rect>
        34 4 2 8</rect></_>
    <_>
      <rect>
        34 13 2 6</rect></_>
    <_>
      <rect>
        34 14 2 4</rect></_>
    <_>
      <rect>
        34 15 2 4</rect></_>
    <_>
      <rect>
        34 17 2 3</rect></_>
    <_>
      <rect>
        34 18 2 3</rect></_>
    <_>
      <rect>
        34 21 2 6</rect></_>
    <_>
      <rect>
        34 25 2 5</rect></_>
    <_>
      <rect>
        34 28 2 4</rect></_>
    <_>
      <rect>
        34 30 2 2</rect></_>
    <_>
      <rect>
        37 18 1 3</rect></_>
    <_>
      <rect>
        37 20 1 1</rect></_>
    <_>
      <rect>
        37 24 1 2</rect></_>
    <_>
      <rect>
        37 25 1 1</rect></_>
    <_>
      <rect>
        37 27 1 1</rect></_>
    <_>
      <rect>
        37 28 1 2</rect></_>
    <_>
      <rect>
        37 29 1 1</rect></_>
    <_>
      <rect>
        37 29 1 2</rect></_>
    <_>
      <rect>
        37 32 1 1</rect></_></features></cascade>
</opencv_storage>
